<?xml version="1.0"?>
<opencv_storage>
<cascade>
  <stageType>BOOST</stageType>
  <featureType>HAAR</featureType>
  <height>54</height>
  <width>80</width>
  <stageParams>
    <boostType>GAB</boostType>
    <minHitRate>9.9500000476837158e-01</minHitRate>
    <maxFalseAlarm>5.0000000000000000e-01</maxFalseAlarm>
    <weightTrimRate>9.4999998807907104e-01</weightTrimRate>
    <maxDepth>1</maxDepth>
    <maxWeakCount>100</maxWeakCount></stageParams>
  <featureParams>
    <maxCatCount>0</maxCatCount>
    <featSize>1</featSize>
    <mode>BASIC</mode></featureParams>
  <stageNum>2</stageNum>
  <stages>
    <!-- stage 0 -->
    <_>
      <maxWeakCount>2</maxWeakCount>
      <stageThreshold>-6.0047793388366699e-01</stageThreshold>
      <weakClassifiers>
        <_>
          <internalNodes>
            0 -1 3 1.4007251709699631e-02</internalNodes>
          <leafValues>
            -9.9412626028060913e-01 5.2173912525177002e-01</leafValues></_>
        <_>
          <internalNodes>
            0 -1 4 2.3596757091581821e-03</internalNodes>
          <leafValues>
            -9.8683375120162964e-01 3.9364835619926453e-01</leafValues></_></weakClassifiers></_>
    <!-- stage 1 -->
    <_>
      <maxWeakCount>3</maxWeakCount>
      <stageThreshold>-9.1227060556411743e-01</stageThreshold>
      <weakClassifiers>
        <_>
          <internalNodes>
            0 -1 2 2.4579772725701332e-03</internalNodes>
          <leafValues>
            -9.6633940935134888e-01 1.</leafValues></_>
        <_>
          <internalNodes>
            0 -1 0 -1.1791666038334370e-03</internalNodes>
          <leafValues>
            1. -9.4593119621276855e-01</leafValues></_>
        <_>
          <internalNodes>
            0 -1 1 -7.8234141692519188e-03</internalNodes>
          <leafValues>
            1. -1.</leafValues></_></weakClassifiers></_></stages>
  <features>
    <_>
      <rects>
        <_>
          1 22 6 6 -1.</_>
        <_>
          1 24 6 2 3.</_></rects>
      <tilted>0</tilted></_>
    <_>
      <rects>
        <_>
          2 21 24 14 -1.</_>
        <_>
          10 21 8 14 3.</_></rects>
      <tilted>0</tilted></_>
    <_>
      <rects>
        <_>
          12 5 34 4 -1.</_>
        <_>
          12 5 17 2 2.</_>
        <_>
          29 7 17 2 2.</_></rects>
      <tilted>0</tilted></_>
    <_>
      <rects>
        <_>
          19 32 58 2 -1.</_>
        <_>
          48 32 29 2 2.</_></rects>
      <tilted>0</tilted></_>
    <_>
      <rects>
        <_>
          70 40 10 9 -1.</_>
        <_>
          75 40 5 9 2.</_></rects>
      <tilted>0</tilted></_></features></cascade>
</opencv_storage>
